svm_type c_svc
kernel_type linear
nr_class 2
total_sv 12
rho -0.530779
label 1 -1
nr_sv 6 6
SV
0.698259152281139 0:0.026806 1:0 2:0 3:0 4:0.000454339 5:0.000454339 6:0 7:0 8:0 9:0 10:0 11:0 12:0 13:0 14:0 15:0 16:0.0118128 17:0.000454339 18:0 19:0 20:0.0381645 21:0.0127215 22:0 23:0 24:0 25:0.000454339 26:0 27:0 28:0 29:0 30:0 31:0 32:0 33:0 34:0 35:0 36:0.025443 37:0.0208996 38:0 39:0 40:0.0231713 41:0.163108 42:0.0122672 43:0.000908678 44:0 45:0 46:0 47:0 48:0 49:0 50:0 51:0 52:0 53:0 54:0 55:0 56:0.00636075 57:0.0427079 58:0.00999546 59:0 60:0.0122672 61:0.132667 62:0.164471 63:0.294412 64:0 65:0 66:0 67:0 68:0 69:0 70:0 71:0 72:0 73:0 74:0 75:0 76:0 77:0 78:0 79:0 80:0 81:0 82:0 83:0 84:0.00830872 85:0.0196786 86:0.0389198 87:0.0546627 88:0.0822126 89:0.104515 90:0.137313 91:0.200284 92:0.182792 93:0.0966436 94:0.0279873 95:0.00743412 96:0.000437301 97:0.0013119 98:0 99:0 100:0 101:0 102:0 103:0 104:0 105:0 106:0 107:0 108:0 109:0 110:0 111:0 112:0 113:0.000437301 114:0.000874602 115:0.0017492 116:0.0139936 117:0.0161801 118:0.0262381 119:0.0411063 120:0.031923 121:0.0310484 122:0.0327976 123:0.0266754 124:0.0240516 125:0.0266754 126:0.023177 127:0.02755 128:0.0253635 129:0.0249262 130:0.0402317 131:0.0459166 132:0.0393571 133:0.0327976 134:0.0393571 135:0.0546627 136:0.049415 137:0.0516015 138:0.0467912 139:0.0380452 140:0.0402317 141:0.0332349 142:0.017492 143:0.0166174 144:0.0201159 145:0.0104952 146:0.00699682 147:0.0017492 148:0.00262381 149:0 150:0 151:0 152:0 153:0 154:0.0122444 155:0.0153055 156:0.0157428 157:0.0349841 158:0.0559746 159:0.0301738 160:0.0327976 161:0.036296 162:0.045042 163:0.0883348 164:0.0887721 165:0.091396 166:0.0931452 167:0.0791515 168:0.0607849 169:0.0634087 170:0.0367333 171:0.0354214 172:0.00393571 173:0.000874602 174:0.000874602 175:0.000874602 176:0 177:0.000437301 178:0.0013119 179:0.00262381 180:0.00349841 181:0.0104952 182:0.00481031 183:0.00437301 184:0.00481031 185:0.00349841 186:0.0017492 187:0.000437301 188:0.000437301 189:0 190:0.000437301 191:0 192:0 193:0 194:0 195:0 196:0 197:0.000437301 198:0.000874602 199:0 200:0 201:0 202:0 203:0.0179294 204:0.036296 205:0.036296 206:0.0380452 207:0.0441674 208:0.0341095 209:0.0327976 210:0.0341095 211:0.0327976 212:0.0384825 213:0.0424182 214:0.0428555 215:0.0301738 216:0.0236143 217:0.0209905 218:0.0218651 219:0.0227397 220:0.0236143 221:0.0262381 222:0.0240516 223:0.0214278 224:0.0223024 225:0.0253635 226:0.0249262 227:0.023177 228:0.0279873 229:0.023177 230:0.0192413 231:0.018804 232:0.0205532 233:0.0205532 234:0.0157428 235:0.0170547 236:0.0236143 237:0.00918333 238:0.00612222 239:0.00481031 240:0.00437301 241:0.00393571 242:0.00393571 243:0.00262381 244:0 245:0 246:0 247:0 248:0 249:0 250:0 251:0 252:0 253:0 254:0 255:0 256:0 257:0 258:0 259:0 260:0 261:0 262:0 263:0 264:0 265:0 266:0 267:0 268:0 269:0 270:0 271:0 272:0 273:0 274:0 275:0 276:0 277:0 278:0 279:0 280:0 281:0 282:0 283:0 284:0 285:0 286:0 287:0 288:0 289:0 290:0 291:0 292:0 293:0 294:0 295:0 296:0 297:0 298:0 299:0 300:0 301:0 302:0 303:0 304:0 305:0 306:0 307:0 308:0 309:0 310:0 311:0 312:0 313:0 314:0 315:0 316:0 317:0 318:0 319:0 320:0 321:0 322:0 323:0 324:0.000437301 325:0 326:0 327:0 328:0 329:0.000874602 330:0 331:0 332:0.000874602 333:0.0017492 334:0.00349841 335:0.00568492 336:0.0104952 337:0.0118071 338:0.0157428 339:0.0218651 340:0.0153055 341:0.0227397 342:0.0240516 343:0.0214278 344:0.0301738 345:0.0292992 346:0.0306111 347:0.0341095 348:0.0306111 349:0.0310484 350:0.0323603 351:0.0236143 352:0.0201159 353:0.0170547 354:0.0253635 355:0.0179294 356:0.0240516 357:0.0218651 358:0.0236143 359:0.0262381 360:0.0310484 361:0.0327976 362:0.0349841 363:0.0306111 364:0.0244889 365:0.0253635 366:0.0332349 367:0.0336722 368:0.036296 369:0.0288619 370:0.0336722 371:0.0428555 
1 0:0.0319388 1:0 2:0 3:0 4:0 5:0.000899685 6:0 7:0 8:0 9:0 10:0 11:0 12:0 13:0 14:0 15:0 16:0.00764732 17:0 18:0 19:0 20:0.0503824 21:0.0224921 22:0 23:0 24:0 25:0.000449843 26:0.000449843 27:0 28:0 29:0 30:0 31:0 32:0 33:0 34:0 35:0 36:0.014395 37:0.0112461 38:0.000449843 39:0 40:0.0202429 41:0.125956 42:0.00854701 43:0.000449843 44:0 45:0 46:0 47:0.00134953 48:0 49:0 50:0 51:0 52:0 53:0 54:0 55:0 56:0.0031489 57:0.0391363 58:0.0116959 59:0 60:0.00404858 61:0.106613 62:0.215924 63:0.322537 64:0 65:0 66:0 67:0 68:0 69:0 70:0 71:0 72:0 73:0 74:0 75:0 76:0 77:0 78:0 79:0 80:0 81:0.000865947 82:0.00129892 83:0.00259784 84:0.00129892 85:0.00692758 86:0.0381017 87:0.0545547 88:0.0545547 89:0.0995839 90:0.145912 91:0.178385 92:0.223847 93:0.128593 94:0.0246795 95:0.00129892 96:0 97:0 98:0 99:0 100:0 101:0 102:0 103:0 104:0 105:0 106:0 107:0 108:0 109:0 110:0 111:0 112:0 113:0.00129892 114:0.00519568 115:0.00952542 116:0.0103914 117:0.0268444 118:0.0316071 119:0.0268444 120:0.0337719 121:0.0255454 122:0.0298752 123:0.0372357 124:0.0277103 125:0.0298752 126:0.0285762 127:0.032906 128:0.0558536 129:0.0394006 130:0.0398336 131:0.0450292 132:0.0450292 133:0.0541217 134:0.0718736 135:0.048926 136:0.0381017 137:0.0251125 138:0.0216487 139:0.0272773 140:0.0259784 141:0.0298752 142:0.0225146 143:0.00259784 144:0.00216487 145:0.00129892 146:0.00129892 147:0.00216487 148:0.00216487 149:0.00173189 150:0.00129892 151:0 152:0 153:0 154:0.00432973 155:0.00736055 156:0.0147211 157:0.0220816 158:0.0502249 159:0.0801001 160:0.0852958 161:0.0692758 162:0.0519568 163:0.11214 164:0.151108 165:0.131624 166:0.0736055 167:0.0121233 168:0.0121233 169:0.00606163 170:0.00606163 171:0.0116903 172:0.0142881 173:0.0134222 174:0.00259784 175:0 176:0 177:0 178:0 179:0.000432973 180:0.00216487 181:0.00129892 182:0.00303081 183:0.00259784 184:0.00389676 185:0.00216487 186:0.00389676 187:0.00129892 188:0 189:0 190:0.00259784 191:0.00129892 192:0.00216487 193:0.000432973 194:0.00129892 195:0.000865947 196:0.000865947 197:0 198:0 199:0 200:0 201:0 202:0.0129892 203:0.0285762 204:0.0303081 205:0.0398336 206:0.0445963 207:0.0402665 208:0.0432973 209:0.0437303 210:0.0381017 211:0.0415655 212:0.0385346 213:0.048493 214:0.03204 215:0.0307411 216:0.0268444 217:0.0216487 218:0.0229476 219:0.0290092 220:0.0311741 221:0.0285762 222:0.0242465 223:0.0220816 224:0.016453 225:0.0142881 226:0.0147211 227:0.015587 228:0.0190508 229:0.0233806 230:0.0177519 231:0.0207827 232:0.016886 233:0.015587 234:0.0108243 235:0.0116903 236:0.0134222 237:0.00779352 238:0.00779352 239:0.00519568 240:0.00606163 241:0.00346379 242:0.00173189 243:0.000432973 244:0 245:0 246:0 247:0 248:0 249:0 250:0 251:0 252:0 253:0 254:0 255:0 256:0 257:0 258:0 259:0 260:0 261:0 262:0 263:0 264:0 265:0 266:0 267:0 268:0 269:0 270:0 271:0 272:0 273:0 274:0 275:0 276:0 277:0 278:0 279:0 280:0 281:0 282:0 283:0 284:0 285:0 286:0 287:0 288:0 289:0 290:0 291:0 292:0 293:0 294:0 295:0 296:0 297:0 298:0 299:0 300:0 301:0 302:0 303:0 304:0 305:0 306:0 307:0 308:0 309:0 310:0 311:0 312:0 313:0 314:0 315:0 316:0 317:0 318:0 319:0 320:0 321:0 322:0.000432973 323:0 324:0 325:0 326:0 327:0 328:0.000865947 329:0.00303081 330:0.00346379 331:0.00519568 332:0.00562865 333:0.00519568 334:0.00562865 335:0.00606163 336:0.00952542 337:0.0103914 338:0.0190508 339:0.0190508 340:0.0212157 341:0.0246795 342:0.015587 343:0.0194838 344:0.0238135 345:0.0212157 346:0.0233806 347:0.0181849 348:0.0216487 349:0.0277103 350:0.0368027 351:0.03204 352:0.0272773 353:0.0342049 354:0.0316071 355:0.0303081 356:0.0359368 357:0.0346379 358:0.0402665 359:0.0303081 360:0.0303081 361:0.0229476 362:0.0307411 363:0.0272773 364:0.0259784 365:0.0298752 366:0.0311741 367:0.0251125 368:0.0207827 369:0.0233806 370:0.0229476 371:0.0281433 
1 0:0.0304487 1:0.000400641 2:0 3:0 4:0 5:0.000400641 6:0 7:0 8:0 9:0 10:0 11:0 12:0 13:0 14:0 15:0 16:0.0068109 17:0.000801282 18:0 19:0 20:0.0260417 21:0.0244391 22:0.000801282 23:0 24:0 25:0.000400641 26:0.000400641 27:0 28:0 29:0 30:0 31:0 32:0 33:0 34:0 35:0 36:0.00480769 37:0.0088141 38:0 39:0 40:0.0104167 41:0.0861378 42:0.00721154 43:0.000400641 44:0 45:0 46:0 47:0 48:0 49:0 50:0 51:0 52:0 53:0 54:0 55:0 56:0.00120192 57:0.0328526 58:0.0132212 59:0 60:0.00600962 61:0.125801 62:0.284455 63:0.327724 64:0 65:0 66:0 67:0 68:0 69:0 70:0 71:0 72:0 73:0 74:0 75:0 76:0 77:0 78:0 79:0 80:0 81:0 82:0 83:0 84:0.00809796 85:0.0107973 86:0.0192808 87:0.0628556 88:0.064398 89:0.0786659 90:0.116071 91:0.147306 92:0.125711 93:0.13111 94:0.149619 95:0.0416466 96:0.0046274 97:0.00192808 98:0.000385617 99:0 100:0 101:0 102:0 103:0 104:0 105:0 106:0 107:0 108:0 109:0 110:0 111:0.00192808 112:0.00154247 113:0.000771234 114:0.000771234 115:0 116:0.000385617 117:0.000771234 118:0.00192808 119:0.00154247 120:0.00347055 121:0.0370192 122:0.0208233 123:0.0169671 124:0.0435747 125:0.054372 126:0.0431891 127:0.0447316 128:0.0547576 129:0.0489734 130:0.0570713 131:0.0547576 132:0.0497446 133:0.0458884 134:0.0354768 135:0.0304637 136:0.0289213 137:0.0215946 138:0.0273788 139:0.0239083 140:0.0134966 141:0.0123397 142:0.0146534 143:0.0154247 144:0.0169671 145:0.0192808 146:0.00964042 147:0.013111 148:0.0254507 149:0.0150391 150:0.0235226 151:0.0289213 152:0.00192808 153:0 154:0.0161959 155:0.0266076 156:0.0393329 157:0.0925481 158:0.0636268 159:0.0682542 160:0.104117 161:0.0659405 162:0.101032 163:0.106816 164:0.0925481 165:0.0455028 166:0.0578425 167:0.0204377 168:0.00886919 169:0.0104117 170:0.00848357 171:0.00424179 172:0.0023137 173:0.0023137 174:0.000385617 175:0 176:0 177:0 178:0 179:0 180:0 181:0 182:0 183:0 184:0 185:0 186:0.000385617 187:0.00308494 188:0.00115685 189:0.00269932 190:0.00192808 191:0.0023137 192:0.00192808 193:0.00385617 194:0.00616987 195:0.000771234 196:0.000385617 197:0 198:0 199:0 200:0 201:0 202:0 203:0.0212089 204:0.0478165 205:0.0385617 206:0.0296925 207:0.0343199 208:0.0327774 209:0.0316206 210:0.0343199 211:0.0339343 212:0.0285357 213:0.0277644 214:0.0331631 215:0.0331631 216:0.0327774 217:0.0339343 218:0.0304637 219:0.0296925 220:0.0320062 221:0.0323918 222:0.02815 223:0.0289213 224:0.0242939 225:0.0273788 226:0.0200521 227:0.0161959 228:0.0161959 229:0.0173528 230:0.0173528 231:0.0165815 232:0.0146534 233:0.0146534 234:0.0150391 235:0.0107973 236:0.0119541 237:0.013111 238:0.0127254 239:0.0123397 240:0.0104117 241:0.00694111 242:0.00539864 243:0.00385617 244:0 245:0 246:0 247:0 248:0 249:0 250:0 251:0 252:0 253:0 254:0 255:0 256:0 257:0 258:0 259:0 260:0 261:0 262:0 263:0 264:0 265:0 266:0 267:0 268:0 269:0 270:0 271:0 272:0 273:0 274:0 275:0 276:0 277:0 278:0 279:0 280:0 281:0 282:0 283:0 284:0 285:0 286:0 287:0 288:0 289:0 290:0 291:0 292:0 293:0 294:0 295:0 296:0 297:0 298:0 299:0 300:0 301:0 302:0 303:0 304:0 305:0 306:0 307:0 308:0 309:0 310:0 311:0 312:0 313:0 314:0 315:0 316:0 317:0 318:0.000385617 319:0 320:0 321:0 322:0 323:0.0023137 324:0.000771234 325:0.000771234 326:0.000771234 327:0.000771234 328:0 329:0.000771234 330:0.00154247 331:0.00269932 332:0.0023137 333:0.0023137 334:0.00578425 335:0.00848357 336:0.00848357 337:0.00886919 338:0.0104117 339:0.0142678 340:0.0173528 341:0.0246795 342:0.018124 343:0.0204377 344:0.0381761 345:0.0393329 346:0.0428035 347:0.0458884 348:0.0512871 349:0.0397185 350:0.0331631 351:0.0323918 352:0.031235 353:0.0316206 354:0.0215946 355:0.0254507 356:0.0277644 357:0.0300781 358:0.0331631 359:0.0165815 360:0.0188952 361:0.0173528 362:0.0169671 363:0.0235226 364:0.0196665 365:0.0212089 366:0.018124 367:0.0254507 368:0.0219802 369:0.0293069 370:0.0269932 371:0.0304637 
0.4872501536889309 0:0.0421978 1:0 2:0 3:0 4:0.00175824 5:0.000879121 6:0 7:0 8:0 9:0 10:0 11:0 12:0 13:0 14:0 15:0 16:0.00879121 17:0 18:0 19:0 20:0.0479121 21:0.0210989 22:0.00043956 23:0 24:0 25:0 26:0 27:0 28:0 29:0 30:0 31:0 32:0 33:0 34:0 35:0 36:0.0228571 37:0.0294505 38:0.00043956 39:0 40:0.0158242 41:0.155165 42:0.00967033 43:0.00043956 44:0 45:0 46:0 47:0.00043956 48:0 49:0 50:0 51:0 52:0 53:0 54:0 55:0 56:0.0021978 57:0.0527473 58:0.010989 59:0 60:0.00307692 61:0.118681 62:0.146813 63:0.308132 64:0 65:0 66:0 67:0 68:0 69:0 70:0 71:0 72:0 73:0 74:0 75:0 76:0 77:0 78:0 79:0 80:0 81:0.000423077 82:0.0126923 83:0.0266538 84:0.0156538 85:0.0262308 86:0.0571154 87:0.0719231 88:0.134538 89:0.138346 90:0.127769 91:0.0803846 92:0.0786923 93:0.099 94:0.0676923 95:0.0173462 96:0.0055 97:0.000846154 98:0.000423077 99:0.000423077 100:0.000846154 101:0 102:0 103:0 104:0 105:0 106:0 107:0 108:0 109:0 110:0.00296154 111:0.00253846 112:0.00634615 113:0.00930769 114:0.0122692 115:0.0173462 116:0.0126923 117:0.0169231 118:0.0156538 119:0.0190385 120:0.0308846 121:0.0304615 122:0.0431538 123:0.0423077 124:0.0325769 125:0.0372308 126:0.0308846 127:0.0287692 128:0.0258077 129:0.0313077 130:0.0342692 131:0.0389231 132:0.0469615 133:0.0583846 134:0.0325769 135:0.0355385 136:0.0283462 137:0.0279231 138:0.0241154 139:0.0241154 140:0.0296154 141:0.0414615 142:0.0253846 143:0.0148077 144:0.0224231 145:0.00888462 146:0.00465385 147:0.00973077 148:0.00507692 149:0 150:0 151:0.000423077 152:0 153:0.000423077 154:0.00253846 155:0.00253846 156:0.00973077 157:0.0562692 158:0.0668462 159:0.0626154 160:0.0829231 161:0.0520385 162:0.0431538 163:0.0456923 164:0.0655769 165:0.0588077 166:0.0410385 167:0.0427308 168:0.0473846 169:0.0537308 170:0.0545769 171:0.0401923 172:0.0190385 173:0.00888462 174:0.00211538 175:0 176:0 177:0.000846154 178:0.00296154 179:0.00338462 180:0.00803846 181:0.0139615 182:0.0165 183:0.0232692 184:0.00846154 185:0.00761538 186:0.00126923 187:0 188:0 189:0 190:0 191:0 192:0 193:0 194:0.00380769 195:0.00380769 196:0.00380769 197:0.00338462 198:0.00296154 199:0 200:0 201:0 202:0 203:0.00930769 204:0.0152308 205:0.0143846 206:0.0194615 207:0.0236923 208:0.0245385 209:0.0296154 210:0.0342692 211:0.0431538 212:0.0444231 213:0.0376538 214:0.0511923 215:0.0617692 216:0.0478077 217:0.0393462 218:0.0385 219:0.0304615 220:0.0249615 221:0.0249615 222:0.0241154 223:0.0270769 224:0.0236923 225:0.0258077 226:0.022 227:0.0194615 228:0.0143846 229:0.0135385 230:0.0143846 231:0.0131154 232:0.0148077 233:0.0152308 234:0.0156538 235:0.0194615 236:0.0169231 237:0.0198846 238:0.0232692 239:0.0160769 240:0.00423077 241:0.00296154 242:0.000846154 243:0.000846154 244:0 245:0 246:0 247:0 248:0 249:0 250:0 251:0 252:0 253:0 254:0 255:0 256:0 257:0 258:0 259:0 260:0 261:0 262:0 263:0 264:0 265:0 266:0 267:0 268:0 269:0 270:0 271:0 272:0 273:0 274:0 275:0 276:0 277:0 278:0 279:0 280:0 281:0 282:0 283:0 284:0 285:0 286:0 287:0 288:0 289:0 290:0 291:0 292:0 293:0 294:0 295:0 296:0 297:0 298:0 299:0 300:0 301:0 302:0 303:0 304:0 305:0 306:0 307:0 308:0 309:0 310:0 311:0 312:0 313:0 314:0 315:0 316:0 317:0 318:0 319:0 320:0 321:0.000846154 322:0.00169231 323:0.00296154 324:0.00169231 325:0.00253846 326:0.00592308 327:0.00338462 328:0.00507692 329:0.00380769 330:0.00423077 331:0.00592308 332:0.00507692 333:0.00803846 334:0.0152308 335:0.0207308 336:0.0228462 337:0.0118462 338:0.0156538 339:0.0249615 340:0.0215769 341:0.0118462 342:0.0143846 343:0.0148077 344:0.0148077 345:0.0203077 346:0.0190385 347:0.0215769 348:0.0211538 349:0.0186154 350:0.0203077 351:0.0207308 352:0.0296154 353:0.0279231 354:0.0224231 355:0.0203077 356:0.0317308 357:0.0245385 358:0.0279231 359:0.0300385 360:0.0291923 361:0.0376538 362:0.0321538 363:0.0241154 364:0.0270769 365:0.0228462 366:0.0241154 367:0.0262308 368:0.0283462 369:0.0283462 370:0.0401923 371:0.0461154 
0.6274317430671882 0:0.00176678 1:0 2:0 3:0 4:0 5:0 6:0 7:0 8:0 9:0 10:0 11:0 12:0 13:0 14:0 15:0 16:0 17:0 18:0 19:0 20:0.0106007 21:0.00706714 22:0 23:0 24:0.00176678 25:0 26:0 27:0 28:0 29:0 30:0 31:0 32:0 33:0 34:0 35:0 36:0.0106007 37:0.00176678 38:0 39:0 40:0.0176678 41:0.0159011 42:0.00176678 43:0 44:0 45:0.00176678 46:0 47:0 48:0 49:0 50:0 51:0 52:0 53:0 54:0 55:0 56:0.123675 57:0.0282686 58:0.00176678 59:0 60:0.487633 61:0.0706714 62:0.0441696 63:0.173145 64:0 65:0 66:0 67:0 68:0 69:0 70:0 71:0 72:0 73:0 74:0 75:0 76:0 77:0 78:0 79:0 80:0 81:0 82:0 83:0 84:0 85:0.00510159 86:0.137743 87:0.22447 88:0.146246 89:0.120738 90:0.0748233 91:0.054417 92:0.0782244 93:0.054417 94:0.0238074 95:0.0238074 96:0.0153048 97:0.00340106 98:0 99:0 100:0 101:0 102:0 103:0 104:0 105:0 106:0 107:0 108:0 109:0 110:0 111:0 112:0 113:0 114:0 115:0 116:0.00510159 117:0.0136042 118:0.0187058 119:0.0119037 120:0.028909 121:0.028909 122:0.0221069 123:0.0221069 124:0.028909 125:0.0374117 126:0.0476148 127:0.0476148 128:0.0510159 129:0.0459143 130:0.054417 131:0.0493154 132:0.0425133 133:0.0442138 134:0.0493154 135:0.0476148 136:0.0561175 137:0.0493154 138:0.0459143 139:0.0476148 140:0.0408127 141:0.0136042 142:0.0102032 143:0.00170053 144:0 145:0 146:0 147:0 148:0 149:0 150:0 151:0 152:0 153:0 154:0 155:0.00170053 156:0.00170053 157:0.0102032 158:0.0187058 159:0.025508 160:0.0374117 161:0.054417 162:0.0714223 163:0.0408127 164:0.0306095 165:0.0374117 166:0.025508 167:0.0408127 168:0.0459143 169:0.0884276 170:0.083326 171:0.130941 172:0.124139 173:0.057818 174:0 175:0 176:0 177:0 178:0 179:0 180:0.00340106 181:0.00850265 182:0.00850265 183:0.00340106 184:0.00340106 185:0.00170053 186:0 187:0 188:0.00340106 189:0 190:0 191:0 192:0 193:0.00170053 194:0 195:0 196:0 197:0.00170053 198:0 199:0 200:0 201:0.00680212 202:0.0170053 203:0.0153048 204:0.0272085 205:0.0170053 206:0.0323101 207:0.0408127 208:0.0442138 209:0.0323101 210:0.0510159 211:0.0340106 212:0.0357111 213:0.0323101 214:0.0238074 215:0.0323101 216:0.0306095 217:0.025508 218:0.0306095 219:0.0340106 220:0.0374117 221:0.0153048 222:0.0153048 223:0.0187058 224:0.00850265 225:0.0170053 226:0.0187058 227:0.0238074 228:0.028909 229:0.0357111 230:0.0272085 231:0.0272085 232:0.0408127 233:0.0272085 234:0.0170053 235:0.00680212 236:0.0102032 237:0.00340106 238:0 239:0.00510159 240:0.00340106 241:0.00170053 242:0.00340106 243:0.00680212 244:0 245:0 246:0 247:0 248:0 249:0 250:0 251:0 252:0 253:0 254:0 255:0 256:0 257:0 258:0 259:0 260:0 261:0 262:0 263:0 264:0 265:0 266:0 267:0 268:0 269:0 270:0 271:0 272:0 273:0 274:0 275:0 276:0 277:0 278:0 279:0 280:0 281:0 282:0 283:0 284:0 285:0 286:0 287:0 288:0 289:0 290:0 291:0 292:0 293:0 294:0 295:0 296:0 297:0 298:0 299:0 300:0 301:0 302:0 303:0 304:0 305:0 306:0 307:0 308:0 309:0 310:0 311:0 312:0 313:0 314:0 315:0 316:0 317:0 318:0 319:0 320:0 321:0 322:0 323:0 324:0 325:0 326:0 327:0 328:0 329:0 330:0 331:0 332:0 333:0.00340106 334:0.00340106 335:0.00340106 336:0.0136042 337:0.0272085 338:0.0408127 339:0.054417 340:0.0731228 341:0.0714223 342:0.100331 343:0.105433 344:0.0663207 345:0.0119037 346:0.00680212 347:0.00850265 348:0.0119037 349:0.0102032 350:0.0170053 351:0.00850265 352:0.0153048 353:0.0102032 354:0.0136042 355:0.0102032 356:0.00850265 357:0.00850265 358:0.0119037 359:0.0238074 360:0.0238074 361:0.0136042 362:0.00850265 363:0.0102032 364:0.0153048 365:0.0170053 366:0.0170053 367:0.0221069 368:0.0170053 369:0.0272085 370:0.0221069 371:0.028909 
0.1538388468801122 0:0.0318182 1:0 2:0 3:0 4:0 5:0 6:0 7:0 8:0 9:0 10:0 11:0 12:0 13:0 14:0 15:0 16:0.00757576 17:0 18:0 19:0 20:0.0166667 21:0.00606061 22:0.00151515 23:0 24:0 25:0 26:0 27:0 28:0 29:0 30:0 31:0 32:0 33:0 34:0 35:0 36:0.00454545 37:0.00454545 38:0 39:0 40:0.0030303 41:0.0151515 42:0.00757576 43:0 44:0 45:0 46:0 47:0 48:0 49:0 50:0 51:0 52:0 53:0 54:0 55:0 56:0 57:0 58:0.00151515 59:0 60:0.0318182 61:0.0530303 62:0.0984848 63:0.716667 64:0 65:0 66:0 67:0 68:0 69:0 70:0 71:0 72:0 73:0 74:0 75:0 76:0 77:0.0247917 78:0.0685417 79:0.0802083 80:0.164792 81:0.243542 82:0.134167 83:0.0889583 84:0.0758333 85:0.0597917 86:0.021875 87:0 88:0 89:0 90:0 91:0 92:0 93:0 94:0 95:0 96:0 97:0 98:0 99:0 100:0 101:0 102:0 103:0 104:0 105:0 106:0 107:0 108:0 109:0 110:0 111:0 112:0 113:0 114:0 115:0 116:0 117:0 118:0 119:0 120:0 121:0 122:0 123:0 124:0 125:0.00145833 126:0.00291667 127:0.013125 128:0.0422917 129:0.161875 130:0.189583 131:0.185208 132:0.158958 133:0.102083 134:0.0452083 135:0.039375 136:0.0204167 137:0 138:0 139:0 140:0 141:0 142:0 143:0 144:0 145:0 146:0 147:0 148:0 149:0 150:0 151:0 152:0 153:0 154:0.004375 155:0.00145833 156:0 157:0 158:0 159:0 160:0 161:0 162:0 163:0 164:0 165:0 166:0 167:0 168:0 169:0 170:0 171:0 172:0 173:0 174:0 175:0 176:0 177:0 178:0 179:0 180:0 181:0 182:0 183:0 184:0 185:0 186:0 187:0.0364583 188:0.0714583 189:0.0802083 190:0.11375 191:0.169167 192:0.220208 193:0.135625 194:0.074375 195:0.0247917 196:0.0160417 197:0.00729167 198:0.00729167 199:0 200:0 201:0 202:0 203:0 204:0 205:0 206:0.00145833 207:0.00583333 208:0.0102083 209:0.00583333 210:0.0116667 211:0.0116667 212:0.0102083 213:0.0160417 214:0.013125 215:0.021875 216:0.0145833 217:0.0291667 218:0.0175 219:0.02625 220:0.0247917 221:0.0247917 222:0.0233333 223:0.0335417 224:0.0204167 225:0.0364583 226:0.035 227:0.0408333 228:0.0408333 229:0.048125 230:0.0408333 231:0.0510417 232:0.035 233:0.0539583 234:0.030625 235:0.0539583 236:0.0379167 237:0.0379167 238:0.0247917 239:0.0277083 240:0.013125 241:0.0102083 242:0.0145833 243:0.00729167 244:0 245:0 246:0 247:0 248:0 249:0 250:0 251:0 252:0 253:0 254:0 255:0 256:0 257:0 258:0 259:0 260:0 261:0 262:0 263:0 264:0 265:0 266:0 267:0 268:0 269:0 270:0 271:0 272:0 273:0 274:0 275:0 276:0 277:0 278:0 279:0 280:0 281:0 282:0 283:0 284:0 285:0 286:0 287:0 288:0 289:0 290:0 291:0 292:0 293:0 294:0 295:0 296:0 297:0 298:0 299:0 300:0 301:0 302:0 303:0 304:0 305:0 306:0 307:0 308:0 309:0 310:0 311:0 312:0 313:0 314:0 315:0 316:0 317:0 318:0 319:0 320:0 321:0 322:0 323:0 324:0.00145833 325:0 326:0 327:0.0116667 328:0 329:0.00291667 330:0.004375 331:0.004375 332:0.0116667 333:0.0116667 334:0.0102083 335:0.013125 336:0.030625 337:0.013125 338:0.0233333 339:0.0116667 340:0.0175 341:0.0145833 342:0.0204167 343:0.0175 344:0.00875 345:0.0320833 346:0.02625 347:0.0204167 348:0.0204167 349:0.0408333 350:0.0233333 351:0.0320833 352:0.0233333 353:0.021875 354:0.0189583 355:0.030625 356:0.0204167 357:0.0145833 358:0.0277083 359:0.02625 360:0.0247917 361:0.0320833 362:0.0379167 363:0.0277083 364:0.035 365:0.0277083 366:0.035 367:0.0335417 368:0.0277083 369:0.02625 370:0.0247917 371:0.021875 
-0.5282352807330278 0:0.0375442 1:0 2:0 3:0 4:0 5:0 6:0 7:0 8:0 9:0 10:0 11:0 12:0 13:0 14:0 15:0 16:0.0914311 17:0 18:0 19:0 20:0.00618375 21:0.0119258 22:0 23:0 24:0 25:0 26:0 27:0 28:0 29:0 30:0 31:0 32:0.132509 33:0 34:0 35:0 36:0.0242933 37:0.00485866 38:0 39:0 40:0 41:0 42:0 43:0 44:0 45:0 46:0 47:0 48:0.0251767 49:0 50:0 51:0 52:0.376767 53:0.00176678 54:0.000441696 55:0 56:0.136926 57:0.0658127 58:0.000883392 59:0 60:0 61:0.059629 62:0.0225265 63:0.00132509 64:0 65:0 66:0 67:0 68:0 69:0 70:0 71:0 72:0 73:0 74:0 75:0 76:0 77:0 78:0 79:0 80:0 81:0 82:0 83:0 84:0 85:0 86:0.00552672 87:0.0148796 88:0.0471897 89:0.0837511 90:0.107984 91:0.132641 92:0.19216 93:0.302694 94:0.0756736 95:0 96:0 97:0 98:0 99:0 100:0 101:0 102:0 103:0 104:0 105:0 106:0 107:0 108:0 109:0 110:0 111:0 112:0 113:0 114:0 115:0 116:0 117:0 118:0 119:0 120:0 121:0 122:0 123:0 124:0 125:0 126:0 127:0 128:0.0157299 129:0.0437886 130:0.307371 131:0.308221 132:0.189609 133:0.076949 134:0.0204064 135:0.000425133 136:0 137:0 138:0 139:0 140:0 141:0 142:0 143:0 144:0 145:0 146:0 147:0 148:0 149:0 150:0 151:0 152:0 153:0 154:0.035286 155:0.0348609 156:0.0361363 157:0.0616442 158:0.181532 159:0.234673 160:0.180256 161:0.118187 162:0.0586683 163:0.019131 164:0.000850265 165:0 166:0.000425133 167:0 168:0 169:0 170:0 171:0 172:0 173:0 174:0 175:0 176:0 177:0 178:0 179:0 180:0 181:0 182:0 183:0 184:0 185:0 186:0 187:0 188:0 189:0 190:0 191:0 192:0 193:0 194:0 195:0 196:0 197:0 198:0.000850265 199:0 200:0 201:0 202:0 203:0 204:0 205:0 206:0 207:0 208:0 209:0 210:0 211:0.00765239 212:0.0378368 213:0.0259331 214:0.0310347 215:0.028909 216:0.0374117 217:0.0395373 218:0.0340106 219:0.0395373 220:0.0386871 221:0.0378368 222:0.0403876 223:0.0471897 224:0.0467646 225:0.0476148 226:0.0446389 227:0.0471897 228:0.04804 229:0.0501656 230:0.0497405 231:0.045064 232:0.0442138 233:0.0408127 234:0.0259331 235:0.0148796 236:0.00595186 237:0.00170053 238:0 239:0.000850265 240:0 241:0.000850265 242:0.000850265 243:0.0012754 244:0 245:0 246:0 247:0 248:0 249:0 250:0 251:0 252:0 253:0 254:0 255:0 256:0 257:0 258:0 259:0 260:0 261:0 262:0 263:0 264:0 265:0 266:0 267:0 268:0 269:0 270:0 271:0 272:0 273:0 274:0 275:0 276:0 277:0 278:0 279:0 280:0 281:0 282:0 283:0 284:0 285:0 286:0 287:0 288:0 289:0 290:0 291:0 292:0 293:0 294:0 295:0 296:0 297:0 298:0 299:0 300:0 301:0 302:0 303:0 304:0 305:0 306:0 307:0 308:0 309:0 310:0 311:0 312:0 313:0 314:0 315:0 316:0 317:0 318:0 319:0 320:0 321:0 322:0 323:0 324:0 325:0 326:0 327:0 328:0.00212566 329:0.00170053 330:0 331:0.0025508 332:0.00170053 333:0 334:0.00892778 335:0.00510159 336:0.00722725 337:0.0153048 338:0.0182807 339:0.0297593 340:0.0293341 341:0.0327352 342:0.0272085 343:0.0314598 344:0.0386871 345:0.0527164 346:0.0488902 347:0.0408127 348:0.0331603 349:0.0395373 350:0.0318849 351:0.0267833 352:0.0246577 353:0.022532 354:0.0250828 355:0.0238074 356:0.0272085 357:0.0238074 358:0.0199812 359:0.0238074 360:0.0233823 361:0.0246577 362:0.0229572 363:0.0199812 364:0.0259331 365:0.0187058 366:0.0199812 367:0.0170053 368:0.0233823 369:0.0187058 370:0.016155 371:0.0148796 
-0.1821373467422669 0:0.0341696 1:0 2:0 3:0 4:0 5:0 6:0 7:0 8:0 9:0 10:0 11:0 12:0 13:0 14:0 15:0 16:0.057526 17:0 18:0 19:0 20:0.00259516 21:0.0112457 22:0 23:0 24:0 25:0 26:0 27:0 28:0 29:0 30:0 31:0 32:0.0544983 33:0.000432526 34:0 35:0 36:0.0973183 37:0.0125433 38:0 39:0 40:0 41:0 42:0 43:0 44:0 45:0 46:0 47:0 48:0.000432526 49:0 50:0 51:0 52:0.314014 53:0.00778547 54:0 55:0 56:0.115917 57:0.12154 58:0.00519031 59:0 60:0 61:0.0605536 62:0.0865052 63:0.0177336 64:0 65:0 66:0 67:0 68:0 69:0 70:0 71:0 72:0 73:0 74:0 75:0 76:0 77:0 78:0 79:0 80:0 81:0 82:0 83:0 84:0 85:0 86:0.00249784 87:0.0212316 88:0.0391328 89:0.0741025 90:0.116982 91:0.148205 92:0.191085 93:0.240625 94:0.122394 95:0.00624459 96:0 97:0 98:0 99:0 100:0 101:0 102:0 103:0 104:0 105:0 106:0 107:0 108:0 109:0 110:0 111:0 112:0 113:0 114:0 115:0 116:0 117:0 118:0 119:0 120:0 121:0 122:0 123:0 124:0 125:0 126:0 127:0 128:0.000416306 129:0.0416306 130:0.241041 131:0.416723 132:0.220226 133:0.0424632 134:0 135:0 136:0 137:0 138:0 139:0 140:0 141:0 142:0 143:0 144:0 145:0 146:0 147:0 148:0 149:0 150:0 151:0 152:0 153:0 154:0.0287251 155:0.0366349 156:0.0545361 157:0.0749351 158:0.117815 159:0.261024 160:0.282256 161:0.0853428 162:0.0195664 163:0.00166522 164:0 165:0 166:0 167:0 168:0 169:0 170:0 171:0 172:0 173:0 174:0 175:0 176:0 177:0 178:0 179:0 180:0 181:0 182:0 183:0 184:0 185:0 186:0 187:0 188:0 189:0 190:0 191:0 192:0 193:0 194:0 195:0 196:0 197:0 198:0 199:0 200:0 201:0 202:0 203:0 204:0 205:0 206:0 207:0 208:0 209:0 210:0 211:0 212:0 213:0.0154033 214:0.0170686 215:0.0245621 216:0.0333045 217:0.0295577 218:0.0283088 219:0.0328882 220:0.0308067 221:0.0316393 222:0.031223 223:0.0308067 224:0.0387165 225:0.0387165 226:0.0391328 227:0.040798 228:0.0362186 229:0.0370513 230:0.0449611 231:0.0391328 232:0.0437122 233:0.0453774 234:0.0387165 235:0.040798 236:0.0449611 237:0.0395491 238:0.031223 239:0.0212316 240:0.0187338 241:0.00915874 242:0.0066609 243:0.00208153 244:0 245:0 246:0 247:0 248:0 249:0 250:0 251:0 252:0 253:0 254:0 255:0 256:0 257:0 258:0 259:0 260:0 261:0 262:0 263:0 264:0 265:0 266:0 267:0 268:0 269:0 270:0 271:0 272:0 273:0 274:0 275:0 276:0 277:0 278:0 279:0 280:0 281:0 282:0 283:0 284:0 285:0 286:0 287:0 288:0 289:0 290:0 291:0 292:0 293:0 294:0 295:0 296:0 297:0 298:0 299:0 300:0 301:0 302:0 303:0 304:0 305:0 306:0 307:0 308:0 309:0 310:0 311:0 312:0 313:0 314:0 315:0 316:0 317:0 318:0 319:0 320:0 321:0 322:0 323:0 324:0 325:0 326:0 327:0 328:0 329:0 330:0.00249784 331:0.00416306 332:0.0066609 333:0.00582829 334:0.0066609 335:0.0112403 336:0.010824 337:0.0224805 338:0.025811 339:0.0278925 340:0.0333045 341:0.0303904 342:0.0358023 343:0.0308067 344:0.0303904 345:0.0366349 346:0.0358023 347:0.0320556 348:0.035386 349:0.031223 350:0.025811 351:0.0270599 352:0.0278925 353:0.0262273 354:0.0274762 355:0.0283088 356:0.0270599 357:0.0245621 358:0.0220642 359:0.0262273 360:0.0224805 361:0.0249784 362:0.0253947 363:0.0241458 364:0.0199827 365:0.0212316 366:0.0220642 367:0.0191501 368:0.0154033 369:0.014987 370:0.0183175 371:0.0158196 
-1 0:0.0313798 1:0 2:0 3:0 4:0 5:0 6:0 7:0 8:0 9:0 10:0 11:0 12:0 13:0 14:0 15:0 16:0.0429165 17:0 18:0 19:0 20:0.00369174 21:0.0115367 22:0 23:0 24:0 25:0 26:0 27:0 28:0 29:0 30:0 31:0 32:0.0858329 33:0 34:0 35:0 36:0.0443009 37:0.0119982 38:0 39:0 40:0 41:0 42:0.000461467 43:0 44:0 45:0 46:0 47:0 48:0.00184587 49:0 50:0 51:0 52:0.332257 53:0.00369174 54:0 55:0 56:0.141209 57:0.0830641 58:0.0027688 59:0 60:0.0013844 61:0.0844485 62:0.0899862 63:0.0272266 64:0 65:0 66:0 67:0 68:0 69:0 70:0 71:0 72:0 73:0 74:0 75:0 76:0 77:0 78:0 79:0 80:0 81:0 82:0 83:0 84:0 85:0 86:0.00755076 87:0.0262056 88:0.0510787 89:0.0803934 90:0.104378 91:0.123033 92:0.184772 93:0.356218 94:0.0288706 95:0 96:0 97:0 98:0 99:0 100:0 101:0 102:0 103:0 104:0 105:0 106:0 107:0 108:0 109:0 110:0 111:0 112:0 113:0 114:0 115:0 116:0 117:0 118:0 119:0 120:0 121:0 122:0 123:0 124:0 125:0 126:0 127:0.00266497 128:0.0479695 129:0.0808376 130:0.180774 131:0.311358 132:0.19632 133:0.115482 134:0.0270939 135:0 136:0 137:0 138:0 139:0 140:0 141:0 142:0 143:0 144:0 145:0 146:0 147:0 148:0 149:0 150:0 151:0 152:0 153:0 154:0.0102157 155:0.0222081 156:0.0368655 157:0.0741751 158:0.182551 159:0.227855 160:0.183439 161:0.129695 162:0.0679569 163:0.019099 164:0.00621827 165:0.000444162 166:0 167:0 168:0 169:0 170:0 171:0 172:0 173:0 174:0 175:0 176:0 177:0 178:0 179:0 180:0 181:0 182:0 183:0 184:0 185:0 186:0 187:0 188:0 189:0 190:0 191:0 192:0 193:0 194:0 195:0 196:0 197:0 198:0.00177665 199:0 200:0 201:0 202:0 203:0 204:0 205:0 206:0 207:0 208:0 209:0 210:0 211:0.00133249 212:0.00977157 213:0.0159898 214:0.0173223 215:0.0186548 216:0.0222081 217:0.0248731 218:0.0293147 219:0.0315355 220:0.0257614 221:0.0333122 222:0.035533 223:0.0346447 224:0.0395305 225:0.0342005 226:0.032868 227:0.0421954 228:0.0399746 229:0.0386421 230:0.0439721 231:0.0426396 232:0.0408629 233:0.0386421 234:0.0426396 235:0.038198 236:0.0466371 237:0.038198 238:0.0390863 239:0.0306472 240:0.0186548 241:0.0102157 242:0.00310914 243:0.00133249 244:0 245:0 246:0 247:0 248:0 249:0 250:0 251:0 252:0 253:0 254:0 255:0 256:0 257:0 258:0 259:0 260:0 261:0 262:0 263:0 264:0 265:0 266:0 267:0 268:0 269:0 270:0 271:0 272:0 273:0 274:0 275:0 276:0 277:0 278:0 279:0 280:0 281:0 282:0 283:0 284:0 285:0 286:0 287:0 288:0 289:0 290:0 291:0 292:0 293:0 294:0 295:0 296:0 297:0 298:0 299:0 300:0 301:0 302:0 303:0 304:0 305:0 306:0 307:0 308:0 309:0 310:0 311:0 312:0 313:0 314:0 315:0 316:0 317:0 318:0 319:0 320:0 321:0 322:0 323:0 324:0 325:0 326:0 327:0 328:0 329:0 330:0 331:0 332:0 333:0 334:0 335:0 336:0 337:0.000444162 338:0.00177665 339:0.0102157 340:0.0230964 341:0.0404188 342:0.0550761 343:0.0701777 344:0.0675127 345:0.0608503 346:0.0453046 347:0.0430838 348:0.038198 349:0.0257614 350:0.0284264 351:0.021764 352:0.0213198 353:0.0226523 354:0.0182107 355:0.0235406 356:0.0173223 357:0.0222081 358:0.0235406 359:0.0226523 360:0.0204315 361:0.0275381 362:0.0186548 363:0.0208756 364:0.0239848 365:0.0213198 366:0.0235406 367:0.0173223 368:0.019099 369:0.0253173 370:0.0222081 371:0.0186548 
-0.7495267579152958 0:0.103757 1:0 2:0 3:0 4:0.304868 5:0.00469684 6:0 7:0 8:0.000853971 9:0.00213493 10:0 11:0 12:0 13:0 14:0 15:0 16:0.000426985 17:0 18:0 19:0 20:0.0444065 21:0.0550811 22:0.000853971 23:0 24:0.0333049 25:0.374893 26:0.00213493 27:0 28:0 29:0.000426985 30:0 31:0 32:0 33:0 34:0 35:0 36:0 37:0.00555081 38:0 39:0 40:0.0123826 41:0.0175064 42:0.00341588 43:0.000426985 44:0.00341588 45:0.00725875 46:0.0149445 47:0 48:0 49:0 50:0 51:0 52:0 53:0 54:0 55:0 56:0.000426985 57:0 58:0 59:0 60:0.00555081 61:0.000853971 62:0 63:0.000426985 64:0 65:0 66:0 67:0 68:0 69:0 70:0 71:0 72:0 73:0 74:0 75:0 76:0 77:0 78:0 79:0 80:0 81:0 82:0 83:0 84:0 85:0 86:0.00452071 87:0.0197267 88:0.0394535 89:0.0661667 90:0.104387 91:0.129457 92:0.1648 93:0.310696 94:0.122059 95:0.00123292 96:0 97:0 98:0 99:0 100:0 101:0 102:0 103:0 104:0 105:0 106:0 107:0 108:0 109:0 110:0 111:0 112:0 113:0 114:0 115:0 116:0 117:0 118:0 119:0 120:0 121:0 122:0 123:0 124:0 125:0 126:0 127:0.000410974 128:0.00534266 129:0.0526046 130:0.26179 131:0.376452 132:0.166855 133:0.0698655 134:0.0246584 135:0.00452071 136:0 137:0 138:0 139:0 140:0 141:0 142:0 143:0 144:0 145:0 146:0 147:0 148:0 149:0 150:0 151:0 152:0 153:0 154:0.0213706 155:0.0423303 156:0.0509607 157:0.0891813 158:0.210007 159:0.253571 160:0.166855 161:0.0990446 162:0.0254804 163:0.00328779 164:0 165:0 166:0 167:0 168:0 169:0 170:0 171:0 172:0 173:0 174:0 175:0 176:0 177:0 178:0 179:0 180:0 181:0 182:0 183:0 184:0 185:0 186:0 187:0 188:0 189:0 190:0 191:0 192:0 193:0 194:0 195:0 196:0 197:0 198:0.000410974 199:0 200:0 201:0 202:0 203:0 204:0 205:0 206:0 207:0 208:0 209:0 210:0 211:0 212:0.00205487 213:0.00945239 214:0.015206 215:0.0250694 216:0.0217816 217:0.0279462 218:0.0324669 219:0.0291791 220:0.0365766 221:0.0341108 222:0.0382205 223:0.0332889 224:0.0382205 225:0.0357547 226:0.0390425 227:0.0353437 228:0.0423303 229:0.0456181 230:0.0423303 231:0.0443851 232:0.04644 233:0.0431522 234:0.0452071 235:0.0406864 236:0.0415083 237:0.0415083 238:0.0295901 239:0.0209596 240:0.00986336 241:0.00821947 242:0.00534266 243:0.00164389 244:0 245:0 246:0 247:0 248:0 249:0 250:0 251:0 252:0 253:0 254:0 255:0 256:0 257:0 258:0 259:0 260:0 261:0 262:0 263:0 264:0 265:0 266:0 267:0 268:0 269:0 270:0 271:0 272:0 273:0 274:0 275:0 276:0 277:0 278:0 279:0 280:0 281:0 282:0 283:0 284:0 285:0 286:0 287:0 288:0 289:0 290:0 291:0 292:0 293:0 294:0 295:0 296:0 297:0 298:0 299:0 300:0 301:0 302:0 303:0 304:0 305:0 306:0 307:0 308:0 309:0 310:0 311:0 312:0 313:0 314:0 315:0 316:0 317:0 318:0 319:0 320:0 321:0 322:0 323:0 324:0 325:0 326:0 327:0 328:0 329:0 330:0.00287681 331:0.00164389 332:0.00287681 333:0.00287681 334:0.0061646 335:0.00986336 336:0.0123292 337:0.015617 338:0.016028 339:0.0398644 340:0.0382205 341:0.0604131 342:0.0526046 343:0.0493168 344:0.0415083 345:0.0435632 346:0.0353437 347:0.0267133 348:0.0287681 349:0.0242474 350:0.0250694 351:0.0213706 352:0.0201377 353:0.0197267 354:0.0197267 355:0.0230145 356:0.0230145 357:0.0263023 358:0.0254804 359:0.0189048 360:0.0238365 361:0.0221926 362:0.0238365 363:0.0209596 364:0.0213706 365:0.0184938 366:0.016028 367:0.015617 368:0.016028 369:0.0164389 370:0.0164389 371:0.0176719 
-1 0:0.093617 1:0.00638298 2:0 3:0 4:0 5:0 6:0 7:0 8:0 9:0 10:0 11:0 12:0 13:0 14:0 15:0 16:0.00638298 17:0.0659574 18:0.0489362 19:0 20:0 21:0.0553191 22:0.1 23:0 24:0 25:0 26:0 27:0 28:0 29:0 30:0 31:0 32:0 33:0 34:0 35:0 36:0 37:0.00851064 38:0.0787234 39:0.251064 40:0 41:0 42:0 43:0.0382979 44:0 45:0 46:0 47:0 48:0 49:0 50:0 51:0 52:0 53:0 54:0 55:0.00212766 56:0 57:0 58:0 59:0.212766 60:0 61:0 62:0.00212766 63:0.0297872 64:0 65:0 66:0 67:0 68:0 69:0 70:0 71:0 72:0 73:0 74:0 75:0 76:0 77:0 78:0 79:0 80:0 81:0 82:0 83:0 84:0 85:0 86:0.00409574 87:0.0266223 88:0.0655319 89:0.0737234 90:0.167926 91:0.370665 92:0.196596 93:0.0573404 94:0 95:0 96:0 97:0 98:0 99:0 100:0 101:0 102:0 103:0 104:0 105:0 106:0 107:0 108:0 109:0 110:0 111:0 112:0 113:0 114:0 115:0 116:0 117:0 118:0 119:0 120:0 121:0 122:0 123:0 124:0 125:0 126:0 127:0 128:0.00614362 129:0.0225266 130:0.227314 131:0.489441 132:0.210931 133:0.00614362 134:0 135:0 136:0 137:0 138:0 139:0 140:0 141:0 142:0 143:0 144:0 145:0 146:0 147:0 148:0 149:0 150:0 151:0 152:0 153:0 154:0.016383 155:0.0204787 156:0.0307181 157:0.032766 158:0.0696277 159:0.0593883 160:0.0716755 161:0.116729 162:0.159734 163:0.155638 164:0.09625 165:0.0593883 166:0.0286702 167:0.0368617 168:0.00819149 169:0 170:0 171:0 172:0 173:0 174:0 175:0 176:0 177:0 178:0 179:0 180:0 181:0 182:0 183:0 184:0 185:0 186:0 187:0 188:0 189:0 190:0 191:0 192:0 193:0 194:0 195:0 196:0 197:0 198:0 199:0 200:0 201:0 202:0 203:0 204:0 205:0 206:0 207:0 208:0.00409574 209:0.00204787 210:0.0122872 211:0.0184309 212:0.0225266 213:0.0225266 214:0.0225266 215:0.0204787 216:0.0184309 217:0.0266223 218:0.0307181 219:0.0307181 220:0.0389096 221:0.0409574 222:0.0245745 223:0.0491489 224:0.0409574 225:0.0491489 226:0.0491489 227:0.0430053 228:0.032766 229:0.0450532 230:0.0368617 231:0.0430053 232:0.032766 233:0.0450532 234:0.0389096 235:0.0348138 236:0.0204787 237:0.0266223 238:0.0102394 239:0.00819149 240:0.00819149 241:0.00409574 242:0.00204787 243:0.00614362 244:0 245:0 246:0 247:0 248:0 249:0 250:0 251:0 252:0 253:0 254:0 255:0 256:0 257:0 258:0 259:0 260:0 261:0 262:0 263:0 264:0 265:0 266:0 267:0 268:0 269:0 270:0 271:0 272:0 273:0 274:0 275:0 276:0 277:0 278:0 279:0 280:0 281:0 282:0 283:0 284:0 285:0 286:0 287:0 288:0 289:0 290:0 291:0 292:0 293:0 294:0 295:0 296:0 297:0 298:0 299:0 300:0 301:0 302:0 303:0 304:0 305:0 306:0 307:0 308:0 309:0 310:0 311:0 312:0 313:0 314:0 315:0 316:0 317:0 318:0 319:0 320:0 321:0 322:0 323:0 324:0 325:0 326:0 327:0 328:0 329:0 330:0 331:0 332:0 333:0 334:0 335:0 336:0 337:0 338:0 339:0 340:0.00204787 341:0 342:0 343:0.00614362 344:0.00614362 345:0.0122872 346:0.0143351 347:0.0184309 348:0.0245745 349:0.0286702 350:0.0266223 351:0.0348138 352:0.0286702 353:0.0573404 354:0.0737234 355:0.0675798 356:0.079867 357:0.0471011 358:0.0614362 359:0.0532447 360:0.0368617 361:0.0389096 362:0.0348138 363:0.0307181 364:0.0245745 365:0.0225266 366:0.0204787 367:0.0184309 368:0.0266223 369:0.0245745 370:0.0204787 371:0.0204787 
-0.5068805105267798 0:0.077551 1:0.0244898 2:0 3:0 4:0 5:0 6:0 7:0 8:0 9:0 10:0 11:0 12:0 13:0 14:0 15:0 16:0.00204082 17:0.106122 18:0.0693878 19:0 20:0 21:0.0306122 22:0.116327 23:0 24:0 25:0 26:0 27:0 28:0 29:0 30:0 31:0 32:0 33:0 34:0 35:0 36:0 37:0.0122449 38:0.0979592 39:0.214286 40:0 41:0 42:0 43:0.0428571 44:0 45:0 46:0 47:0 48:0 49:0 50:0 51:0 52:0 53:0 54:0 55:0 56:0 57:0 58:0 59:0.206122 60:0 61:0 62:0 63:0 64:0 65:0 66:0 67:0 68:0 69:0 70:0 71:0 72:0 73:0 74:0 75:0 76:0 77:0 78:0 79:0 80:0 81:0 82:0 83:0 84:0 85:0 86:0.00392857 87:0.0255357 88:0.0373214 89:0.0825 90:0.135536 91:0.269107 92:0.335893 93:0.0707143 94:0.00196429 95:0 96:0 97:0 98:0 99:0 100:0 101:0 102:0 103:0 104:0 105:0 106:0 107:0 108:0 109:0 110:0 111:0 112:0 113:0 114:0 115:0 116:0 117:0 118:0 119:0 120:0 121:0 122:0 123:0 124:0 125:0 126:0 127:0 128:0 129:0.0216071 130:0.257321 131:0.45375 132:0.1925 133:0.0373214 134:0 135:0 136:0 137:0 138:0 139:0 140:0 141:0 142:0 143:0 144:0 145:0 146:0 147:0 148:0 149:0 150:0 151:0 152:0 153:0 154:0.0196429 155:0.0235714 156:0.0471429 157:0.0726786 158:0.0825 159:0.09625 160:0.129643 161:0.145357 162:0.161071 163:0.115893 164:0.0530357 165:0.01375 166:0 167:0 168:0 169:0 170:0 171:0 172:0 173:0 174:0 175:0 176:0 177:0 178:0 179:0 180:0 181:0 182:0 183:0 184:0 185:0 186:0 187:0 188:0 189:0 190:0 191:0 192:0 193:0 194:0 195:0 196:0 197:0 198:0.00196429 199:0 200:0 201:0 202:0 203:0 204:0 205:0 206:0 207:0 208:0 209:0 210:0 211:0.00196429 212:0.00392857 213:0.0117857 214:0.0117857 215:0.0117857 216:0.0117857 217:0.0255357 218:0.0294643 219:0.0314286 220:0.0275 221:0.0392857 222:0.0216071 223:0.0353571 224:0.0275 225:0.04125 226:0.0392857 227:0.0392857 228:0.0471429 229:0.0353571 230:0.0373214 231:0.0471429 232:0.0333929 233:0.0353571 234:0.0392857 235:0.0491071 236:0.0392857 237:0.0491071 238:0.0392857 239:0.0471429 240:0.0314286 241:0.0117857 242:0.00589286 243:0.00392857 244:0 245:0 246:0 247:0 248:0 249:0 250:0 251:0 252:0 253:0 254:0 255:0 256:0 257:0 258:0 259:0 260:0 261:0 262:0 263:0 264:0 265:0 266:0 267:0 268:0 269:0 270:0 271:0 272:0 273:0 274:0 275:0 276:0 277:0 278:0 279:0 280:0 281:0 282:0 283:0 284:0 285:0 286:0 287:0 288:0 289:0 290:0 291:0 292:0 293:0 294:0 295:0 296:0 297:0 298:0 299:0 300:0 301:0 302:0 303:0 304:0 305:0 306:0 307:0 308:0 309:0 310:0 311:0 312:0 313:0 314:0 315:0 316:0 317:0 318:0 319:0 320:0 321:0 322:0 323:0 324:0 325:0 326:0 327:0 328:0 329:0 330:0 331:0 332:0 333:0 334:0 335:0 336:0 337:0 338:0 339:0 340:0.00196429 341:0 342:0.00196429 343:0.0117857 344:0.00392857 345:0.01375 346:0.0275 347:0.0235714 348:0.0333929 349:0.0432143 350:0.055 351:0.055 352:0.0864286 353:0.0608929 354:0.055 355:0.0432143 356:0.0628571 357:0.0373214 358:0.0432143 359:0.0373214 360:0.0353571 361:0.0176786 362:0.0275 363:0.0314286 364:0.0157143 365:0.0275 366:0.0216071 367:0.0196429 368:0.0176786 369:0.0176786 370:0.0157143 371:0.0176786 
