svm_type one_class
kernel_type linear
nr_class 2
total_sv 11
rho 0.708489
SV
0.7396536615569318 0:0.0449244 1:0 2:0 3:0 4:0.000863931 5:0 6:0 7:0 8:0 9:0 10:0 11:0 12:0 13:0 14:0 15:0 16:0.00345572 17:0 18:0 19:0 20:0.038013 21:0.0237581 22:0 23:0 24:0.000431965 25:0.000863931 26:0.0012959 27:0 28:0 29:0 30:0 31:0 32:0 33:0 34:0 35:0 36:0.0159827 37:0.0241901 38:0 39:0 40:0.0228942 41:0.159395 42:0.00561555 43:0 44:0 45:0 46:0 47:0 48:0 49:0 50:0 51:0 52:0 53:0 54:0 55:0 56:0.00475162 57:0.025486 58:0.00518359 59:0 60:0.00647948 61:0.129158 62:0.130886 63:0.356371 
1 0:0.0017762 1:0 2:0 3:0 4:0.0053286 5:0 6:0 7:0 8:0 9:0 10:0 11:0 12:0 13:0 14:0 15:0 16:0.0053286 17:0 18:0 19:0 20:0.0301954 21:0.0142096 22:0 23:0 24:0 25:0 26:0.0017762 27:0 28:0 29:0 30:0 31:0 32:0 33:0 34:0 35:0 36:0.0017762 37:0.0053286 38:0 39:0 40:0.0230906 41:0.00888099 42:0.0053286 43:0 44:0 45:0.0017762 46:0.0017762 47:0 48:0 49:0 50:0 51:0 52:0 53:0 54:0 55:0 56:0.0106572 57:0.0017762 58:0.0017762 59:0 60:0.584369 61:0.053286 62:0.0515098 63:0.190053 
1 0:0.0269421 1:0 2:0 3:0 4:0 5:0 6:0 7:0 8:0 9:0 10:0 11:0 12:0 13:0 14:0 15:0 16:0.0579255 17:0 18:0 19:0 20:0.00673552 21:0.00808262 22:0 23:0 24:0 25:0 26:0 27:0 28:0 29:0 30:0 31:0 32:0.0291872 33:0 34:0 35:0 36:0.090705 37:0.0157162 38:0 39:0 40:0 41:0.000449035 42:0.000449035 43:0 44:0 45:0 46:0 47:0 48:0.000449035 49:0 50:0 51:0 52:0.363269 53:0.00269421 54:0 55:0 56:0.105074 57:0.114953 58:0.00224517 59:0 60:0.000898069 61:0.0875617 62:0.0767849 63:0.00987876 
1 0:0.0188596 1:0 2:0 3:0 4:0 5:0 6:0 7:0 8:0 9:0 10:0 11:0 12:0 13:0 14:0 15:0 16:0.0394737 17:0 18:0 19:0 20:0.00614035 21:0.00526316 22:0 23:0 24:0 25:0 26:0 27:0 28:0 29:0 30:0 31:0 32:0.0368421 33:0.000438596 34:0 35:0 36:0.0903509 37:0.00964912 38:0 39:0 40:0.000438596 41:0.000877193 42:0 43:0 44:0 45:0 46:0 47:0 48:0 49:0 50:0 51:0 52:0.269737 53:0.00701754 54:0 55:0 56:0.153947 57:0.10307 58:0.00482456 59:0 60:0.000877193 61:0.0973684 62:0.113596 63:0.0412281 
1 0:0.113292 1:0 2:0 3:0 4:0.297502 5:0.0160571 6:0 7:0 8:0.00178412 9:0.00312221 10:0 11:0 12:0 13:0 14:0 15:0 16:0 17:0 18:0 19:0 20:0.0267618 21:0.0321142 22:0 23:0 24:0.0343443 25:0.435772 26:0.00044603 27:0 28:0 29:0 30:0.00044603 31:0 32:0 33:0 34:0 35:0 36:0 37:0.00044603 38:0 39:0 40:0.0115968 41:0.0107047 42:0.00178412 43:0 44:0.00535236 45:0.00401427 46:0.000892061 47:0 48:0 49:0 50:0 51:0 52:0 53:0 54:0 55:0 56:0 57:0 58:0 59:0 60:0.00267618 61:0.000892061 62:0 63:0 
1 0:0.0288939 1:0 2:0 3:0 4:0 5:0 6:0 7:0 8:0 9:0 10:0 11:0 12:0 13:0 14:0 15:0 16:0.0451467 17:0.000451467 18:0 19:0 20:0.00406321 21:0.0126411 22:0 23:0 24:0.000451467 25:0 26:0 27:0 28:0 29:0 30:0 31:0 32:0.0356659 33:0 34:0 35:0 36:0.0934537 37:0.0108352 38:0 39:0 40:0 41:0.000451467 42:0 43:0 44:0 45:0 46:0 47:0 48:0 49:0 50:0 51:0 52:0.265011 53:0.00451467 54:0.000451467 55:0 56:0.142212 57:0.102032 58:0.00541761 59:0 60:0.000451467 61:0.089842 62:0.120993 63:0.0370203 
1 0:0.121906 1:0.000526593 2:0 3:0 4:0 5:0 6:0 7:0 8:0 9:0 10:0 11:0 12:0 13:0 14:0 15:0 16:0.0242233 17:0.000526593 18:0 19:0 20:0.02396 21:0.0113217 22:0.000263296 23:0 24:0 25:0 26:0 27:0 28:0 29:0 30:0 31:0 32:0.00210637 33:0 34:0 35:0 36:0.0668773 37:0.0247499 38:0 39:0 40:0.00421274 41:0.0144813 42:0.00342285 43:0.000263296 44:0 45:0 46:0 47:0 48:0 49:0 50:0 51:0 52:0.00605582 53:0.00105319 54:0 55:0 56:0.0279094 57:0.151132 58:0.0129015 59:0.000263296 60:0.00315956 61:0.187204 62:0.206951 63:0.104529 
1 0:0.0299743 1:0.000735565 2:0 3:0 4:0.000183891 5:0.000183891 6:0.000183891 7:0.000183891 8:0 9:0 10:0 11:0 12:0 13:0 14:0 15:0 16:0.0108496 17:0.000551673 18:0 19:0 20:0.0143435 21:0.011769 22:0.000183891 23:0 24:0 25:0.000183891 26:0.000735565 27:0 28:0 29:0 30:0 31:0 32:0 33:0 34:0 35:0 36:0.0481795 37:0.04395 38:0 39:0 40:0.00882677 41:0.0875322 42:0.00901067 43:0.000551673 44:0 45:0 46:0 47:0.000551673 48:0 49:0 50:0 51:0 52:0.00147113 53:0 54:0 55:0 56:0.015263 57:0.359139 58:0.156491 59:0.000735565 60:0.000183891 61:0.027032 62:0.122655 63:0.0483634 
0.7603463384430682 0:0.62916 1:0.127839 2:0.0311675 3:0 4:0.00264131 5:0.0301109 6:0.0126783 7:0.00158479 8:0 9:0 10:0 11:0 12:0 13:0 14:0 15:0 16:0.00369783 17:0.0158479 18:0.000528262 19:0 20:0.00898045 21:0.0713154 22:0.0132066 23:0.00211305 24:0 25:0 26:0 27:0.000528262 28:0 29:0 30:0 31:0 32:0 33:0 34:0 35:0 36:0.000528262 37:0.00211305 38:0.00211305 39:0.000528262 40:0 41:0.0042261 42:0.00211305 43:0.00792393 44:0 45:0 46:0 47:0.000528262 48:0 49:0 50:0 51:0 52:0 53:0 54:0.000528262 55:0 56:0 57:0 58:0 59:0.00264131 60:0 61:0.000528262 62:0.000528262 63:0.0243001 
1 0:0.0229095 1:0.00343643 2:0 3:0 4:0 5:0.0091638 6:0.0526919 7:0 8:0 9:0 10:0 11:0 12:0 13:0 14:0 15:0 16:0.0160367 17:0.00687285 18:0 19:0 20:0.0355097 21:0.124857 22:0.185567 23:0 24:0 25:0.00343643 26:0.0355097 27:0.00572738 28:0 29:0 30:0 31:0 32:0 33:0 34:0 35:0 36:0.00687285 37:0.0114548 38:0.00343643 39:0 40:0.00114548 41:0.04811 42:0.0710195 43:0.0091638 44:0 45:0 46:0.00114548 47:0.00114548 48:0 49:0 50:0 51:0 52:0 53:0 54:0.00114548 55:0 56:0 57:0.00801833 58:0.0091638 59:0 60:0 61:0 62:0.0045819 63:0.321879 
1 0:0.0313901 1:0.464126 2:0.0246637 3:0 4:0 5:0.0134529 6:0.0381166 7:0.00224215 8:0 9:0 10:0 11:0 12:0 13:0 14:0 15:0 16:0 17:0.0112108 18:0 19:0 20:0.00672646 21:0.0470852 22:0.058296 23:0.0156951 24:0 25:0 26:0 27:0.188341 28:0 29:0 30:0 31:0 32:0 33:0 34:0 35:0 36:0 37:0 38:0.00224215 39:0 40:0 41:0 42:0.00896861 43:0.0560538 44:0 45:0 46:0 47:0.00672646 48:0 49:0 50:0 51:0 52:0 53:0 54:0 55:0 56:0 57:0 58:0 59:0.00224215 60:0 61:0 62:0 63:0.0224215 
